<?xml version="1.0"?>
<opencv_storage>
<cascade>
  <stageType>BOOST</stageType>
  <featureType>HAAR</featureType>
  <height>24</height>
  <width>32</width>
  <stageParams>
    <boostType>GAB</boostType>
    <minHitRate>9.9500000476837158e-01</minHitRate>
    <maxFalseAlarm>5.0000000000000000e-01</maxFalseAlarm>
    <weightTrimRate>9.4999998807907104e-01</weightTrimRate>
    <maxDepth>1</maxDepth>
    <maxWeakCount>100</maxWeakCount></stageParams>
  <featureParams>
    <maxCatCount>0</maxCatCount>
    <featSize>1</featSize>
    <mode>BASIC</mode></featureParams>
  <stageNum>13</stageNum>
  <stages>
    <!-- stage 0 -->
    <_>
      <maxWeakCount>3</maxWeakCount>
      <stageThreshold>-1.2549787759780884e+00</stageThreshold>
      <weakClassifiers>
        <_>
          <internalNodes>
            0 -1 23 2.1869552135467529e-01</internalNodes>
          <leafValues>
            -8.8510221242904663e-01 7.4297189712524414e-01</leafValues></_>
        <_>
          <internalNodes>
            0 -1 1 -9.0415906161069870e-03</internalNodes>
          <leafValues>
            6.8597543239593506e-01 -9.4070303440093994e-01</leafValues></_>
        <_>
          <internalNodes>
            0 -1 27 -2.7424972504377365e-02</internalNodes>
          <leafValues>
            5.7082647085189819e-01 -9.5532625913619995e-01</leafValues></_></weakClassifiers></_>
    <!-- stage 1 -->
    <_>
      <maxWeakCount>2</maxWeakCount>
      <stageThreshold>-1.2834906578063965e-01</stageThreshold>
      <weakClassifiers>
        <_>
          <internalNodes>
            0 -1 40 -5.3197506815195084e-02</internalNodes>
          <leafValues>
            6.7375886440277100e-01 -9.1951709985733032e-01</leafValues></_>
        <_>
          <internalNodes>
            0 -1 8 1.8824765086174011e-01</internalNodes>
          <leafValues>
            -8.0057317018508911e-01 7.9116803407669067e-01</leafValues></_></weakClassifiers></_>
    <!-- stage 2 -->
    <_>
      <maxWeakCount>3</maxWeakCount>
      <stageThreshold>-1.1515097618103027e+00</stageThreshold>
      <weakClassifiers>
        <_>
          <internalNodes>
            0 -1 10 3.8398456573486328e-01</internalNodes>
          <leafValues>
            -9.1866528987884521e-01 4.9526813626289368e-01</leafValues></_>
        <_>
          <internalNodes>
            0 -1 22 4.9274858087301254e-02</internalNodes>
          <leafValues>
            -8.5670781135559082e-01 4.4460436701774597e-01</leafValues></_>
        <_>
          <internalNodes>
            0 -1 20 6.7876107990741730e-02</internalNodes>
          <leafValues>
            -7.7509462833404541e-01 6.2386327981948853e-01</leafValues></_></weakClassifiers></_>
    <!-- stage 3 -->
    <_>
      <maxWeakCount>3</maxWeakCount>
      <stageThreshold>-1.2932995557785034e+00</stageThreshold>
      <weakClassifiers>
        <_>
          <internalNodes>
            0 -1 25 4.8312276601791382e-02</internalNodes>
          <leafValues>
            -9.3049329519271851e-01 2.7604165673255920e-01</leafValues></_>
        <_>
          <internalNodes>
            0 -1 14 2.0963561534881592e-01</internalNodes>
          <leafValues>
            -6.8816030025482178e-01 6.9876587390899658e-01</leafValues></_>
        <_>
          <internalNodes>
            0 -1 2 1.7745431512594223e-02</internalNodes>
          <leafValues>
            -8.8118088245391846e-01 4.6029910445213318e-01</leafValues></_></weakClassifiers></_>
    <!-- stage 4 -->
    <_>
      <maxWeakCount>4</maxWeakCount>
      <stageThreshold>-8.9207100868225098e-01</stageThreshold>
      <weakClassifiers>
        <_>
          <internalNodes>
            0 -1 45 8.3666928112506866e-03</internalNodes>
          <leafValues>
            -8.5287845134735107e-01 2.2485207021236420e-01</leafValues></_>
        <_>
          <internalNodes>
            0 -1 19 4.0872637182474136e-02</internalNodes>
          <leafValues>
            -7.7646249532699585e-01 4.8894837498664856e-01</leafValues></_>
        <_>
          <internalNodes>
            0 -1 28 -8.8741853833198547e-03</internalNodes>
          <leafValues>
            3.1622934341430664e-01 -9.1778063774108887e-01</leafValues></_>
        <_>
          <internalNodes>
            0 -1 12 2.4065997451543808e-02</internalNodes>
          <leafValues>
            -6.5668988227844238e-01 4.9156779050827026e-01</leafValues></_></weakClassifiers></_>
    <!-- stage 5 -->
    <_>
      <maxWeakCount>5</maxWeakCount>
      <stageThreshold>-1.4430743455886841e+00</stageThreshold>
      <weakClassifiers>
        <_>
          <internalNodes>
            0 -1 32 1.1535016447305679e-01</internalNodes>
          <leafValues>
            -8.3406114578247070e-01 1.1111111193895340e-01</leafValues></_>
        <_>
          <internalNodes>
            0 -1 11 7.5853145122528076e-01</internalNodes>
          <leafValues>
            -5.2044469118118286e-01 7.6685005426406860e-01</leafValues></_>
        <_>
          <internalNodes>
            0 -1 7 1.5183085203170776e-01</internalNodes>
          <leafValues>
            -5.4170107841491699e-01 6.4682668447494507e-01</leafValues></_>
        <_>
          <internalNodes>
            0 -1 36 -5.8872005902230740e-03</internalNodes>
          <leafValues>
            4.4086685776710510e-01 -8.0850696563720703e-01</leafValues></_>
        <_>
          <internalNodes>
            0 -1 33 1.4160886639729142e-03</internalNodes>
          <leafValues>
            3.1646728515625000e-01 -9.5379471778869629e-01</leafValues></_></weakClassifiers></_>
    <!-- stage 6 -->
    <_>
      <maxWeakCount>3</maxWeakCount>
      <stageThreshold>-1.1634906530380249e+00</stageThreshold>
      <weakClassifiers>
        <_>
          <internalNodes>
            0 -1 21 4.8827193677425385e-02</internalNodes>
          <leafValues>
            -7.9128670692443848e-01 1.9723182916641235e-01</leafValues></_>
        <_>
          <internalNodes>
            0 -1 24 2.7365583181381226e-01</internalNodes>
          <leafValues>
            -7.1106410026550293e-01 4.8190471529960632e-01</leafValues></_>
        <_>
          <internalNodes>
            0 -1 35 -7.4436469003558159e-04</internalNodes>
          <leafValues>
            -9.8306936025619507e-01 3.3886021375656128e-01</leafValues></_></weakClassifiers></_>
    <!-- stage 7 -->
    <_>
      <maxWeakCount>5</maxWeakCount>
      <stageThreshold>-1.4307932853698730e+00</stageThreshold>
      <weakClassifiers>
        <_>
          <internalNodes>
            0 -1 37 1.6049809753894806e-02</internalNodes>
          <leafValues>
            -8.2590675354003906e-01 2.3472668230533600e-01</leafValues></_>
        <_>
          <internalNodes>
            0 -1 13 1.2276898324489594e-01</internalNodes>
          <leafValues>
            -7.1809536218643188e-01 3.9074867963790894e-01</leafValues></_>
        <_>
          <internalNodes>
            0 -1 16 1.1531817913055420e-01</internalNodes>
          <leafValues>
            -5.2967947721481323e-01 6.5474706888198853e-01</leafValues></_>
        <_>
          <internalNodes>
            0 -1 43 -1.3439264148473740e-04</internalNodes>
          <leafValues>
            -7.9842686653137207e-01 4.2395555973052979e-01</leafValues></_>
        <_>
          <internalNodes>
            0 -1 15 1.6755478456616402e-02</internalNodes>
          <leafValues>
            -9.1072696447372437e-01 3.3247110247612000e-01</leafValues></_></weakClassifiers></_>
    <!-- stage 8 -->
    <_>
      <maxWeakCount>3</maxWeakCount>
      <stageThreshold>-9.9170243740081787e-01</stageThreshold>
      <weakClassifiers>
        <_>
          <internalNodes>
            0 -1 39 -1.6081066802144051e-02</internalNodes>
          <leafValues>
            3.9574468135833740e-01 -7.8482228517532349e-01</leafValues></_>
        <_>
          <internalNodes>
            0 -1 41 8.4843829274177551e-02</internalNodes>
          <leafValues>
            -5.6758403778076172e-01 7.0451641082763672e-01</leafValues></_>
        <_>
          <internalNodes>
            0 -1 34 7.3897710535675287e-04</internalNodes>
          <leafValues>
            3.6070385575294495e-01 -9.7200077772140503e-01</leafValues></_></weakClassifiers></_>
    <!-- stage 9 -->
    <_>
      <maxWeakCount>5</maxWeakCount>
      <stageThreshold>-1.1896623373031616e+00</stageThreshold>
      <weakClassifiers>
        <_>
          <internalNodes>
            0 -1 5 7.6932233572006226e-01</internalNodes>
          <leafValues>
            -7.3059767484664917e-01 6.1290323734283447e-01</leafValues></_>
        <_>
          <internalNodes>
            0 -1 10 7.2409856319427490e-01</internalNodes>
          <leafValues>
            -6.5497303009033203e-01 6.5993183851242065e-01</leafValues></_>
        <_>
          <internalNodes>
            0 -1 29 1.7634788155555725e-01</internalNodes>
          <leafValues>
            -5.6000214815139771e-01 5.7458984851837158e-01</leafValues></_>
        <_>
          <internalNodes>
            0 -1 31 -5.5729220621287823e-03</internalNodes>
          <leafValues>
            4.8862558603286743e-01 -5.8760011196136475e-01</leafValues></_>
        <_>
          <internalNodes>
            0 -1 46 -3.7501552142202854e-03</internalNodes>
          <leafValues>
            3.2486835122108459e-01 -8.6730706691741943e-01</leafValues></_></weakClassifiers></_>
    <!-- stage 10 -->
    <_>
      <maxWeakCount>4</maxWeakCount>
      <stageThreshold>-1.0099153518676758e+00</stageThreshold>
      <weakClassifiers>
        <_>
          <internalNodes>
            0 -1 17 1.1922817677259445e-02</internalNodes>
          <leafValues>
            -7.2076791524887085e-01 7.8461539745330811e-01</leafValues></_>
        <_>
          <internalNodes>
            0 -1 3 -8.5642393678426743e-03</internalNodes>
          <leafValues>
            3.5843089222908020e-01 -8.3141326904296875e-01</leafValues></_>
        <_>
          <internalNodes>
            0 -1 42 -5.2474346011877060e-04</internalNodes>
          <leafValues>
            -8.9314937591552734e-01 3.0657199025154114e-01</leafValues></_>
        <_>
          <internalNodes>
            0 -1 4 1.3757126871496439e-03</internalNodes>
          <leafValues>
            2.4557103216648102e-01 -9.4844317436218262e-01</leafValues></_></weakClassifiers></_>
    <!-- stage 11 -->
    <_>
      <maxWeakCount>5</maxWeakCount>
      <stageThreshold>-1.0060038566589355e+00</stageThreshold>
      <weakClassifiers>
        <_>
          <internalNodes>
            0 -1 26 -7.1940277703106403e-03</internalNodes>
          <leafValues>
            9.0977442264556885e-01 -7.3928260803222656e-01</leafValues></_>
        <_>
          <internalNodes>
            0 -1 9 1.9336134195327759e-01</internalNodes>
          <leafValues>
            -5.5930930376052856e-01 5.8997255563735962e-01</leafValues></_>
        <_>
          <internalNodes>
            0 -1 6 1.2310805171728134e-01</internalNodes>
          <leafValues>
            -6.5675985813140869e-01 5.3210109472274780e-01</leafValues></_>
        <_>
          <internalNodes>
            0 -1 44 -1.2563592463266104e-04</internalNodes>
          <leafValues>
            -7.6381224393844604e-01 4.3047288060188293e-01</leafValues></_>
        <_>
          <internalNodes>
            0 -1 18 4.0091078728437424e-02</internalNodes>
          <leafValues>
            -6.2498265504837036e-01 5.8403056859970093e-01</leafValues></_></weakClassifiers></_>
    <!-- stage 12 -->
    <_>
      <maxWeakCount>3</maxWeakCount>
      <stageThreshold>-1.0924471616744995e+00</stageThreshold>
      <weakClassifiers>
        <_>
          <internalNodes>
            0 -1 38 -6.9646872580051422e-02</internalNodes>
          <leafValues>
            6.3114756345748901e-01 -8.5077518224716187e-01</leafValues></_>
        <_>
          <internalNodes>
            0 -1 0 6.9836918264627457e-03</internalNodes>
          <leafValues>
            -6.5961855649948120e-01 8.1913852691650391e-01</leafValues></_>
        <_>
          <internalNodes>
            0 -1 30 -6.3683129847049713e-03</internalNodes>
          <leafValues>
            -9.8841750621795654e-01 4.1794657707214355e-01</leafValues></_></weakClassifiers></_></stages>
  <features>
    <_>
      <rects>
        <_>
          0 6 10 4 -1.</_>
        <_>
          0 6 5 2 2.</_>
        <_>
          5 8 5 2 2.</_></rects>
      <tilted>0</tilted></_>
    <_>
      <rects>
        <_>
          0 8 6 16 -1.</_>
        <_>
          0 8 3 8 2.</_>
        <_>
          3 16 3 8 2.</_></rects>
      <tilted>0</tilted></_>
    <_>
      <rects>
        <_>
          0 8 8 8 -1.</_>
        <_>
          4 8 4 8 2.</_></rects>
      <tilted>0</tilted></_>
    <_>
      <rects>
        <_>
          0 9 6 14 -1.</_>
        <_>
          0 9 3 7 2.</_>
        <_>
          3 16 3 7 2.</_></rects>
      <tilted>0</tilted></_>
    <_>
      <rects>
        <_>
          1 0 4 4 -1.</_>
        <_>
          1 2 4 2 2.</_></rects>
      <tilted>0</tilted></_>
    <_>
      <rects>
        <_>
          1 2 30 21 -1.</_>
        <_>
          11 2 10 21 3.</_></rects>
      <tilted>0</tilted></_>
    <_>
      <rects>
        <_>
          2 1 9 18 -1.</_>
        <_>
          2 7 9 6 3.</_></rects>
      <tilted>0</tilted></_>
    <_>
      <rects>
        <_>
          2 4 12 16 -1.</_>
        <_>
          8 4 6 16 2.</_></rects>
      <tilted>0</tilted></_>
    <_>
      <rects>
        <_>
          2 4 21 17 -1.</_>
        <_>
          9 4 7 17 3.</_></rects>
      <tilted>0</tilted></_>
    <_>
      <rects>
        <_>
          2 5 21 16 -1.</_>
        <_>
          9 5 7 16 3.</_></rects>
      <tilted>0</tilted></_>
    <_>
      <rects>
        <_>
          3 0 27 24 -1.</_>
        <_>
          3 8 27 8 3.</_></rects>
      <tilted>0</tilted></_>
    <_>
      <rects>
        <_>
          4 0 26 24 -1.</_>
        <_>
          4 8 26 8 3.</_></rects>
      <tilted>0</tilted></_>
    <_>
      <rects>
        <_>
          4 2 2 18 -1.</_>
        <_>
          4 8 2 6 3.</_></rects>
      <tilted>0</tilted></_>
    <_>
      <rects>
        <_>
          4 5 9 18 -1.</_>
        <_>
          4 11 9 6 3.</_></rects>
      <tilted>0</tilted></_>
    <_>
      <rects>
        <_>
          4 7 25 15 -1.</_>
        <_>
          4 12 25 5 3.</_></rects>
      <tilted>0</tilted></_>
    <_>
      <rects>
        <_>
          5 0 16 7 -1.</_>
        <_>
          13 0 8 7 2.</_></rects>
      <tilted>0</tilted></_>
    <_>
      <rects>
        <_>
          5 3 25 12 -1.</_>
        <_>
          5 7 25 4 3.</_></rects>
      <tilted>0</tilted></_>
    <_>
      <rects>
        <_>
          5 16 6 2 -1.</_>
        <_>
          8 16 3 2 2.</_></rects>
      <tilted>0</tilted></_>
    <_>
      <rects>
        <_>
          6 5 3 18 -1.</_>
        <_>
          6 11 3 6 3.</_></rects>
      <tilted>0</tilted></_>
    <_>
      <rects>
        <_>
          7 3 21 3 -1.</_>
        <_>
          14 3 7 3 3.</_></rects>
      <tilted>0</tilted></_>
    <_>
      <rects>
        <_>
          7 18 21 4 -1.</_>
        <_>
          14 18 7 4 3.</_></rects>
      <tilted>0</tilted></_>
    <_>
      <rects>
        <_>
          8 12 17 9 -1.</_>
        <_>
          8 15 17 3 3.</_></rects>
      <tilted>0</tilted></_>
    <_>
      <rects>
        <_>
          9 0 14 8 -1.</_>
        <_>
          9 4 14 4 2.</_></rects>
      <tilted>0</tilted></_>
    <_>
      <rects>
        <_>
          9 2 21 19 -1.</_>
        <_>
          16 2 7 19 3.</_></rects>
      <tilted>0</tilted></_>
    <_>
      <rects>
        <_>
          9 2 21 22 -1.</_>
        <_>
          16 2 7 22 3.</_></rects>
      <tilted>0</tilted></_>
    <_>
      <rects>
        <_>
          10 0 13 8 -1.</_>
        <_>
          10 4 13 4 2.</_></rects>
      <tilted>0</tilted></_>
    <_>
      <rects>
        <_>
          10 17 2 4 -1.</_>
        <_>
          10 19 2 2 2.</_></rects>
      <tilted>0</tilted></_>
    <_>
      <rects>
        <_>
          10 18 15 6 -1.</_>
        <_>
          10 21 15 3 2.</_></rects>
      <tilted>0</tilted></_>
    <_>
      <rects>
        <_>
          10 20 12 4 -1.</_>
        <_>
          10 22 12 2 2.</_></rects>
      <tilted>0</tilted></_>
    <_>
      <rects>
        <_>
          11 3 18 21 -1.</_>
        <_>
          17 3 6 21 3.</_></rects>
      <tilted>0</tilted></_>
    <_>
      <rects>
        <_>
          11 9 5 8 -1.</_>
        <_>
          11 13 5 4 2.</_></rects>
      <tilted>0</tilted></_>
    <_>
      <rects>
        <_>
          13 0 14 4 -1.</_>
        <_>
          13 0 7 2 2.</_>
        <_>
          20 2 7 2 2.</_></rects>
      <tilted>0</tilted></_>
    <_>
      <rects>
        <_>
          13 3 15 17 -1.</_>
        <_>
          18 3 5 17 3.</_></rects>
      <tilted>0</tilted></_>
    <_>
      <rects>
        <_>
          13 9 9 6 -1.</_>
        <_>
          16 9 3 6 3.</_></rects>
      <tilted>0</tilted></_>
    <_>
      <rects>
        <_>
          13 10 9 3 -1.</_>
        <_>
          16 10 3 3 3.</_></rects>
      <tilted>0</tilted></_>
    <_>
      <rects>
        <_>
          13 10 9 4 -1.</_>
        <_>
          16 10 3 4 3.</_></rects>
      <tilted>0</tilted></_>
    <_>
      <rects>
        <_>
          14 0 18 4 -1.</_>
        <_>
          14 0 9 2 2.</_>
        <_>
          23 2 9 2 2.</_></rects>
      <tilted>0</tilted></_>
    <_>
      <rects>
        <_>
          14 17 15 2 -1.</_>
        <_>
          19 17 5 2 3.</_></rects>
      <tilted>0</tilted></_>
    <_>
      <rects>
        <_>
          18 3 14 6 -1.</_>
        <_>
          25 3 7 6 2.</_></rects>
      <tilted>0</tilted></_>
    <_>
      <rects>
        <_>
          20 17 8 2 -1.</_>
        <_>
          24 17 4 2 2.</_></rects>
      <tilted>0</tilted></_>
    <_>
      <rects>
        <_>
          22 8 10 9 -1.</_>
        <_>
          27 8 5 9 2.</_></rects>
      <tilted>0</tilted></_>
    <_>
      <rects>
        <_>
          23 7 8 15 -1.</_>
        <_>
          23 12 8 5 3.</_></rects>
      <tilted>0</tilted></_>
    <_>
      <rects>
        <_>
          26 0 6 2 -1.</_>
        <_>
          29 0 3 2 2.</_></rects>
      <tilted>0</tilted></_>
    <_>
      <rects>
        <_>
          26 20 3 2 -1.</_>
        <_>
          26 21 3 1 2.</_></rects>
      <tilted>0</tilted></_>
    <_>
      <rects>
        <_>
          26 23 6 1 -1.</_>
        <_>
          29 23 3 1 2.</_></rects>
      <tilted>0</tilted></_>
    <_>
      <rects>
        <_>
          28 5 1 15 -1.</_>
        <_>
          28 10 1 5 3.</_></rects>
      <tilted>0</tilted></_>
    <_>
      <rects>
        <_>
          28 8 4 8 -1.</_>
        <_>
          30 8 2 8 2.</_></rects>
      <tilted>0</tilted></_></features></cascade>
</opencv_storage>
