<?xml version="1.0"?>
<opencv_storage>
<cascade>
  <stageType>BOOST</stageType>
  <featureType>HAAR</featureType>
  <height>24</height>
  <width>32</width>
  <stageParams>
    <boostType>GAB</boostType>
    <minHitRate>9.9500000476837158e-01</minHitRate>
    <maxFalseAlarm>5.0000000000000000e-01</maxFalseAlarm>
    <weightTrimRate>9.4999998807907104e-01</weightTrimRate>
    <maxDepth>1</maxDepth>
    <maxWeakCount>100</maxWeakCount></stageParams>
  <featureParams>
    <maxCatCount>0</maxCatCount>
    <featSize>1</featSize>
    <mode>BASIC</mode></featureParams>
  <stageNum>5</stageNum>
  <stages>
    <!-- stage 0 -->
    <_>
      <maxWeakCount>1</maxWeakCount>
      <stageThreshold>9.7333335876464844e-01</stageThreshold>
      <weakClassifiers>
        <_>
          <internalNodes>
            0 -1 3 4.5503017306327820e-01</internalNodes>
          <leafValues>
            -1. 9.7333335876464844e-01</leafValues></_></weakClassifiers></_>
    <!-- stage 1 -->
    <_>
      <maxWeakCount>3</maxWeakCount>
      <stageThreshold>-1.2307262420654297e+00</stageThreshold>
      <weakClassifiers>
        <_>
          <internalNodes>
            0 -1 4 2.0347389578819275e-01</internalNodes>
          <leafValues>
            -9.9000000953674316e-01 8.6486488580703735e-01</leafValues></_>
        <_>
          <internalNodes>
            0 -1 10 -2.6049036532640457e-02</internalNodes>
          <leafValues>
            8.8597023487091064e-01 -9.7070664167404175e-01</leafValues></_>
        <_>
          <internalNodes>
            0 -1 9 1.3456305861473083e-01</internalNodes>
          <leafValues>
            -9.9759882688522339e-01 7.2998040914535522e-01</leafValues></_></weakClassifiers></_>
    <!-- stage 2 -->
    <_>
      <maxWeakCount>3</maxWeakCount>
      <stageThreshold>-1.5595057010650635e+00</stageThreshold>
      <weakClassifiers>
        <_>
          <internalNodes>
            0 -1 11 -4.1579902172088623e-02</internalNodes>
          <leafValues>
            7.7777779102325439e-01 -9.8003989458084106e-01</leafValues></_>
        <_>
          <internalNodes>
            0 -1 7 1.1585297062993050e-02</internalNodes>
          <leafValues>
            -9.6394062042236328e-01 3.3833301067352295e-01</leafValues></_>
        <_>
          <internalNodes>
            0 -1 12 2.1233417093753815e-02</internalNodes>
          <leafValues>
            -9.1779881715774536e-01 6.5863901376724243e-01</leafValues></_></weakClassifiers></_>
    <!-- stage 3 -->
    <_>
      <maxWeakCount>3</maxWeakCount>
      <stageThreshold>-1.4846112728118896e+00</stageThreshold>
      <weakClassifiers>
        <_>
          <internalNodes>
            0 -1 2 1.5319502353668213e-01</internalNodes>
          <leafValues>
            -9.8591548204421997e-01 6.7500001192092896e-01</leafValues></_>
        <_>
          <internalNodes>
            0 -1 1 7.7524411678314209e-01</internalNodes>
          <leafValues>
            -9.4665426015853882e-01 7.0002639293670654e-01</leafValues></_>
        <_>
          <internalNodes>
            0 -1 0 1.4898447692394257e-01</internalNodes>
          <leafValues>
            -9.8205828666687012e-01 4.4795849919319153e-01</leafValues></_></weakClassifiers></_>
    <!-- stage 4 -->
    <_>
      <maxWeakCount>3</maxWeakCount>
      <stageThreshold>-1.2974168062210083e+00</stageThreshold>
      <weakClassifiers>
        <_>
          <internalNodes>
            0 -1 5 3.6289148032665253e-02</internalNodes>
          <leafValues>
            -9.8019802570343018e-01 1.</leafValues></_>
        <_>
          <internalNodes>
            0 -1 8 2.1016806364059448e-02</internalNodes>
          <leafValues>
            -9.5310932397842407e-01 1.</leafValues></_>
        <_>
          <internalNodes>
            0 -1 6 3.1570324301719666e-01</internalNodes>
          <leafValues>
            -9.7201269865036011e-01 6.3589060306549072e-01</leafValues></_></weakClassifiers></_></stages>
  <features>
    <_>
      <rects>
        <_>
          0 7 14 14 -1.</_>
        <_>
          7 7 7 14 2.</_></rects>
      <tilted>0</tilted></_>
    <_>
      <rects>
        <_>
          1 2 30 20 -1.</_>
        <_>
          11 2 10 20 3.</_></rects>
      <tilted>0</tilted></_>
    <_>
      <rects>
        <_>
          1 9 14 11 -1.</_>
        <_>
          8 9 7 11 2.</_></rects>
      <tilted>0</tilted></_>
    <_>
      <rects>
        <_>
          2 1 30 13 -1.</_>
        <_>
          12 1 10 13 3.</_></rects>
      <tilted>0</tilted></_>
    <_>
      <rects>
        <_>
          5 8 22 15 -1.</_>
        <_>
          5 13 22 5 3.</_></rects>
      <tilted>0</tilted></_>
    <_>
      <rects>
        <_>
          5 19 24 1 -1.</_>
        <_>
          13 19 8 1 3.</_></rects>
      <tilted>0</tilted></_>
    <_>
      <rects>
        <_>
          6 0 23 24 -1.</_>
        <_>
          6 8 23 8 3.</_></rects>
      <tilted>0</tilted></_>
    <_>
      <rects>
        <_>
          6 8 1 12 -1.</_>
        <_>
          6 12 1 4 3.</_></rects>
      <tilted>0</tilted></_>
    <_>
      <rects>
        <_>
          7 6 9 5 -1.</_>
        <_>
          10 6 3 5 3.</_></rects>
      <tilted>0</tilted></_>
    <_>
      <rects>
        <_>
          7 9 16 15 -1.</_>
        <_>
          7 14 16 5 3.</_></rects>
      <tilted>0</tilted></_>
    <_>
      <rects>
        <_>
          8 14 3 8 -1.</_>
        <_>
          8 18 3 4 2.</_></rects>
      <tilted>0</tilted></_>
    <_>
      <rects>
        <_>
          13 13 16 8 -1.</_>
        <_>
          13 13 8 4 2.</_>
        <_>
          21 17 8 4 2.</_></rects>
      <tilted>0</tilted></_>
    <_>
      <rects>
        <_>
          24 8 2 12 -1.</_>
        <_>
          24 12 2 4 3.</_></rects>
      <tilted>0</tilted></_></features></cascade>
</opencv_storage>
