<?xml version="1.0"?>
<opencv_storage>
<cascade>
  <stageType>BOOST</stageType>
  <featureType>HAAR</featureType>
  <height>24</height>
  <width>32</width>
  <stageParams>
    <boostType>GAB</boostType>
    <minHitRate>9.9500000476837158e-01</minHitRate>
    <maxFalseAlarm>5.0000000000000000e-01</maxFalseAlarm>
    <weightTrimRate>9.4999998807907104e-01</weightTrimRate>
    <maxDepth>1</maxDepth>
    <maxWeakCount>100</maxWeakCount></stageParams>
  <featureParams>
    <maxCatCount>0</maxCatCount>
    <featSize>1</featSize>
    <mode>BASIC</mode></featureParams>
  <stageNum>7</stageNum>
  <stages>
    <!-- stage 0 -->
    <_>
      <maxWeakCount>2</maxWeakCount>
      <stageThreshold>-4.6013054251670837e-01</stageThreshold>
      <weakClassifiers>
        <_>
          <internalNodes>
            0 -1 16 -4.7054119408130646e-02</internalNodes>
          <leafValues>
            5.3684210777282715e-01 -9.9795711040496826e-01</leafValues></_>
        <_>
          <internalNodes>
            0 -1 4 2.2695884108543396e-01</internalNodes>
          <leafValues>
            -9.9697262048721313e-01 5.6281203031539917e-01</leafValues></_></weakClassifiers></_>
    <!-- stage 1 -->
    <_>
      <maxWeakCount>2</maxWeakCount>
      <stageThreshold>-5.8448982238769531e-01</stageThreshold>
      <weakClassifiers>
        <_>
          <internalNodes>
            0 -1 11 3.1911330297589302e-03</internalNodes>
          <leafValues>
            -9.6582913398742676e-01 4.4303798675537109e-01</leafValues></_>
        <_>
          <internalNodes>
            0 -1 5 1.1197347939014435e-01</internalNodes>
          <leafValues>
            -9.9309629201889038e-01 3.8133934140205383e-01</leafValues></_></weakClassifiers></_>
    <!-- stage 2 -->
    <_>
      <maxWeakCount>3</maxWeakCount>
      <stageThreshold>-1.3826720714569092e+00</stageThreshold>
      <weakClassifiers>
        <_>
          <internalNodes>
            0 -1 0 3.1665444374084473e-02</internalNodes>
          <leafValues>
            -9.6793586015701294e-01 5.2631580829620361e-01</leafValues></_>
        <_>
          <internalNodes>
            0 -1 14 2.3629229515790939e-02</internalNodes>
          <leafValues>
            -9.2231535911560059e-01 5.4266369342803955e-01</leafValues></_>
        <_>
          <internalNodes>
            0 -1 15 -1.4163066633045673e-02</internalNodes>
          <leafValues>
            5.0757908821105957e-01 -9.8164564371109009e-01</leafValues></_></weakClassifiers></_>
    <!-- stage 3 -->
    <_>
      <maxWeakCount>3</maxWeakCount>
      <stageThreshold>-1.4423824548721313e+00</stageThreshold>
      <weakClassifiers>
        <_>
          <internalNodes>
            0 -1 3 -1.0238604247570038e-01</internalNodes>
          <leafValues>
            4.0845069289207458e-01 -9.5214354991912842e-01</leafValues></_>
        <_>
          <internalNodes>
            0 -1 13 -7.3519768193364143e-03</internalNodes>
          <leafValues>
            4.5634144544601440e-01 -9.2993694543838501e-01</leafValues></_>
        <_>
          <internalNodes>
            0 -1 7 4.3663966655731201e-01</internalNodes>
          <leafValues>
            -9.9488002061843872e-01 4.3969812989234924e-01</leafValues></_></weakClassifiers></_>
    <!-- stage 4 -->
    <_>
      <maxWeakCount>3</maxWeakCount>
      <stageThreshold>-1.3652240037918091e+00</stageThreshold>
      <weakClassifiers>
        <_>
          <internalNodes>
            0 -1 12 -2.5023791939020157e-02</internalNodes>
          <leafValues>
            6.8000000715255737e-01 -9.7797799110412598e-01</leafValues></_>
        <_>
          <internalNodes>
            0 -1 10 3.5081773996353149e-02</internalNodes>
          <leafValues>
            -8.8947856426239014e-01 8.3739525079727173e-01</leafValues></_>
        <_>
          <internalNodes>
            0 -1 8 1.0238189250230789e-01</internalNodes>
          <leafValues>
            -9.8316609859466553e-01 5.0223249197006226e-01</leafValues></_></weakClassifiers></_>
    <!-- stage 5 -->
    <_>
      <maxWeakCount>3</maxWeakCount>
      <stageThreshold>-1.1288731098175049e+00</stageThreshold>
      <weakClassifiers>
        <_>
          <internalNodes>
            0 -1 2 -1.7221751622855663e-03</internalNodes>
          <leafValues>
            7.9310345649719238e-01 -9.5669293403625488e-01</leafValues></_>
        <_>
          <internalNodes>
            0 -1 9 3.4580662846565247e-02</internalNodes>
          <leafValues>
            -8.7390029430389404e-01 1.</leafValues></_>
        <_>
          <internalNodes>
            0 -1 1 1.6001095995306969e-02</internalNodes>
          <leafValues>
            -9.5887160301208496e-01 7.0172011852264404e-01</leafValues></_></weakClassifiers></_>
    <!-- stage 6 -->
    <_>
      <maxWeakCount>1</maxWeakCount>
      <stageThreshold>1.</stageThreshold>
      <weakClassifiers>
        <_>
          <internalNodes>
            0 -1 6 -8.1338919699192047e-04</internalNodes>
          <leafValues>
            -1. 1.</leafValues></_></weakClassifiers></_></stages>
  <features>
    <_>
      <rects>
        <_>
          0 5 4 13 -1.</_>
        <_>
          2 5 2 13 2.</_></rects>
      <tilted>0</tilted></_>
    <_>
      <rects>
        <_>
          0 6 6 6 -1.</_>
        <_>
          3 6 3 6 2.</_></rects>
      <tilted>0</tilted></_>
    <_>
      <rects>
        <_>
          2 13 30 2 -1.</_>
        <_>
          2 13 15 1 2.</_>
        <_>
          17 14 15 1 2.</_></rects>
      <tilted>0</tilted></_>
    <_>
      <rects>
        <_>
          2 16 22 6 -1.</_>
        <_>
          2 19 22 3 2.</_></rects>
      <tilted>0</tilted></_>
    <_>
      <rects>
        <_>
          3 2 10 21 -1.</_>
        <_>
          3 9 10 7 3.</_></rects>
      <tilted>0</tilted></_>
    <_>
      <rects>
        <_>
          3 2 22 8 -1.</_>
        <_>
          3 6 22 4 2.</_></rects>
      <tilted>0</tilted></_>
    <_>
      <rects>
        <_>
          4 0 18 4 -1.</_>
        <_>
          13 0 9 4 2.</_></rects>
      <tilted>0</tilted></_>
    <_>
      <rects>
        <_>
          4 3 25 21 -1.</_>
        <_>
          4 10 25 7 3.</_></rects>
      <tilted>0</tilted></_>
    <_>
      <rects>
        <_>
          8 16 24 7 -1.</_>
        <_>
          16 16 8 7 3.</_></rects>
      <tilted>0</tilted></_>
    <_>
      <rects>
        <_>
          12 5 15 2 -1.</_>
        <_>
          17 5 5 2 3.</_></rects>
      <tilted>0</tilted></_>
    <_>
      <rects>
        <_>
          12 19 12 4 -1.</_>
        <_>
          16 19 4 4 3.</_></rects>
      <tilted>0</tilted></_>
    <_>
      <rects>
        <_>
          15 3 6 1 -1.</_>
        <_>
          17 3 2 1 3.</_></rects>
      <tilted>0</tilted></_>
    <_>
      <rects>
        <_>
          18 11 10 10 -1.</_>
        <_>
          18 11 5 5 2.</_>
        <_>
          23 16 5 5 2.</_></rects>
      <tilted>0</tilted></_>
    <_>
      <rects>
        <_>
          18 13 12 4 -1.</_>
        <_>
          18 13 6 2 2.</_>
        <_>
          24 15 6 2 2.</_></rects>
      <tilted>0</tilted></_>
    <_>
      <rects>
        <_>
          18 17 14 6 -1.</_>
        <_>
          18 17 7 3 2.</_>
        <_>
          25 20 7 3 2.</_></rects>
      <tilted>0</tilted></_>
    <_>
      <rects>
        <_>
          19 1 6 7 -1.</_>
        <_>
          22 1 3 7 2.</_></rects>
      <tilted>0</tilted></_>
    <_>
      <rects>
        <_>
          24 9 8 8 -1.</_>
        <_>
          28 9 4 8 2.</_></rects>
      <tilted>0</tilted></_></features></cascade>
</opencv_storage>
