<?xml version="1.0"?>
<opencv_storage>
<cascade>
  <stageType>BOOST</stageType>
  <featureType>HAAR</featureType>
  <height>24</height>
  <width>32</width>
  <stageParams>
    <boostType>GAB</boostType>
    <minHitRate>9.9500000476837158e-01</minHitRate>
    <maxFalseAlarm>5.0000000000000000e-01</maxFalseAlarm>
    <weightTrimRate>9.4999998807907104e-01</weightTrimRate>
    <maxDepth>1</maxDepth>
    <maxWeakCount>100</maxWeakCount></stageParams>
  <featureParams>
    <maxCatCount>0</maxCatCount>
    <featSize>1</featSize>
    <mode>BASIC</mode></featureParams>
  <stageNum>4</stageNum>
  <stages>
    <!-- stage 0 -->
    <_>
      <maxWeakCount>2</maxWeakCount>
      <stageThreshold>-1.6940660774707794e-01</stageThreshold>
      <weakClassifiers>
        <_>
          <internalNodes>
            0 -1 2 4.4613480567932129e-02</internalNodes>
          <leafValues>
            -9.9001997709274292e-01 8.2857143878936768e-01</leafValues></_>
        <_>
          <internalNodes>
            0 -1 7 6.9491467438638210e-03</internalNodes>
          <leafValues>
            -9.7471219301223755e-01 8.2061338424682617e-01</leafValues></_></weakClassifiers></_>
    <!-- stage 1 -->
    <_>
      <maxWeakCount>2</maxWeakCount>
      <stageThreshold>-3.9962300658226013e-01</stageThreshold>
      <weakClassifiers>
        <_>
          <internalNodes>
            0 -1 6 -9.1971561312675476e-02</internalNodes>
          <leafValues>
            5.6521737575531006e-01 -9.9798184633255005e-01</leafValues></_>
        <_>
          <internalNodes>
            0 -1 5 -1.9502997398376465e-02</internalNodes>
          <leafValues>
            8.3455896377563477e-01 -9.6484041213989258e-01</leafValues></_></weakClassifiers></_>
    <!-- stage 2 -->
    <_>
      <maxWeakCount>2</maxWeakCount>
      <stageThreshold>-6.8053483963012695e-01</stageThreshold>
      <weakClassifiers>
        <_>
          <internalNodes>
            0 -1 4 9.4976380467414856e-02</internalNodes>
          <leafValues>
            -9.9593085050582886e-01 2.9629629850387573e-01</leafValues></_>
        <_>
          <internalNodes>
            0 -1 3 1.1331161111593246e-01</internalNodes>
          <leafValues>
            -9.7683113813400269e-01 5.7614189386367798e-01</leafValues></_></weakClassifiers></_>
    <!-- stage 3 -->
    <_>
      <maxWeakCount>3</maxWeakCount>
      <stageThreshold>-1.1980637311935425e+00</stageThreshold>
      <weakClassifiers>
        <_>
          <internalNodes>
            0 -1 1 7.4459528923034668e-01</internalNodes>
          <leafValues>
            -9.9001997709274292e-01 8.2857143878936768e-01</leafValues></_>
        <_>
          <internalNodes>
            0 -1 0 7.3395258188247681e-01</internalNodes>
          <leafValues>
            -9.8526948690414429e-01 2.5732973217964172e-01</leafValues></_>
        <_>
          <internalNodes>
            0 -1 8 2.6534982025623322e-03</internalNodes>
          <leafValues>
            -9.1892504692077637e-01 7.7722573280334473e-01</leafValues></_></weakClassifiers></_></stages>
  <features>
    <_>
      <rects>
        <_>
          0 2 30 21 -1.</_>
        <_>
          10 2 10 21 3.</_></rects>
      <tilted>0</tilted></_>
    <_>
      <rects>
        <_>
          1 0 30 21 -1.</_>
        <_>
          11 0 10 21 3.</_></rects>
      <tilted>0</tilted></_>
    <_>
      <rects>
        <_>
          4 13 10 4 -1.</_>
        <_>
          9 13 5 4 2.</_></rects>
      <tilted>0</tilted></_>
    <_>
      <rects>
        <_>
          5 0 6 18 -1.</_>
        <_>
          5 6 6 6 3.</_></rects>
      <tilted>0</tilted></_>
    <_>
      <rects>
        <_>
          7 0 18 8 -1.</_>
        <_>
          7 4 18 4 2.</_></rects>
      <tilted>0</tilted></_>
    <_>
      <rects>
        <_>
          8 22 15 2 -1.</_>
        <_>
          8 23 15 1 2.</_></rects>
      <tilted>0</tilted></_>
    <_>
      <rects>
        <_>
          18 14 12 7 -1.</_>
        <_>
          24 14 6 7 2.</_></rects>
      <tilted>0</tilted></_>
    <_>
      <rects>
        <_>
          24 5 1 9 -1.</_>
        <_>
          24 8 1 3 3.</_></rects>
      <tilted>0</tilted></_>
    <_>
      <rects>
        <_>
          26 9 4 2 -1.</_>
        <_>
          26 10 4 1 2.</_></rects>
      <tilted>0</tilted></_></features></cascade>
</opencv_storage>
