<?xml version="1.0"?>
<opencv_storage>
<cascade>
  <stageType>BOOST</stageType>
  <featureType>HAAR</featureType>
  <height>24</height>
  <width>32</width>
  <stageParams>
    <boostType>GAB</boostType>
    <minHitRate>9.9500000476837158e-01</minHitRate>
    <maxFalseAlarm>5.0000000000000000e-01</maxFalseAlarm>
    <weightTrimRate>9.4999998807907104e-01</weightTrimRate>
    <maxDepth>1</maxDepth>
    <maxWeakCount>100</maxWeakCount></stageParams>
  <featureParams>
    <maxCatCount>0</maxCatCount>
    <featSize>1</featSize>
    <mode>BASIC</mode></featureParams>
  <stageNum>5</stageNum>
  <stages>
    <!-- stage 0 -->
    <_>
      <maxWeakCount>2</maxWeakCount>
      <stageThreshold>-3.4235274791717529e-01</stageThreshold>
      <weakClassifiers>
        <_>
          <internalNodes>
            0 -1 3 5.0503395497798920e-02</internalNodes>
          <leafValues>
            -9.8212510347366333e-01 8.6666667461395264e-01</leafValues></_>
        <_>
          <internalNodes>
            0 -1 1 2.1039938926696777e-01</internalNodes>
          <leafValues>
            -1. 6.3977235555648804e-01</leafValues></_></weakClassifiers></_>
    <!-- stage 1 -->
    <_>
      <maxWeakCount>2</maxWeakCount>
      <stageThreshold>-5.0254452228546143e-01</stageThreshold>
      <weakClassifiers>
        <_>
          <internalNodes>
            0 -1 6 -1.7944844439625740e-02</internalNodes>
          <leafValues>
            7.8571426868438721e-01 -9.7621405124664307e-01</leafValues></_>
        <_>
          <internalNodes>
            0 -1 5 6.2579534947872162e-02</internalNodes>
          <leafValues>
            -1. 4.7366952896118164e-01</leafValues></_></weakClassifiers></_>
    <!-- stage 2 -->
    <_>
      <maxWeakCount>2</maxWeakCount>
      <stageThreshold>-6.4142853021621704e-01</stageThreshold>
      <weakClassifiers>
        <_>
          <internalNodes>
            0 -1 4 4.6116381883621216e-01</internalNodes>
          <leafValues>
            -9.9595957994461060e-01 4.8936170339584351e-01</leafValues></_>
        <_>
          <internalNodes>
            0 -1 7 -6.3210964202880859e-02</internalNodes>
          <leafValues>
            3.5453107953071594e-01 -1.</leafValues></_></weakClassifiers></_>
    <!-- stage 3 -->
    <_>
      <maxWeakCount>3</maxWeakCount>
      <stageThreshold>-1.0640171766281128e+00</stageThreshold>
      <weakClassifiers>
        <_>
          <internalNodes>
            0 -1 9 1.7202042043209076e-02</internalNodes>
          <leafValues>
            -9.7815293073654175e-01 7.3333334922790527e-01</leafValues></_>
        <_>
          <internalNodes>
            0 -1 8 2.3624345660209656e-02</internalNodes>
          <leafValues>
            -9.1676563024520874e-01 1.</leafValues></_>
        <_>
          <internalNodes>
            0 -1 2 5.8984182775020599e-02</internalNodes>
          <leafValues>
            -9.3192070722579956e-01 8.3090132474899292e-01</leafValues></_></weakClassifiers></_>
    <!-- stage 4 -->
    <_>
      <maxWeakCount>1</maxWeakCount>
      <stageThreshold>1.</stageThreshold>
      <weakClassifiers>
        <_>
          <internalNodes>
            0 -1 0 7.1663565933704376e-02</internalNodes>
          <leafValues>
            -1. 1.</leafValues></_></weakClassifiers></_></stages>
  <features>
    <_>
      <rects>
        <_>
          0 6 12 8 -1.</_>
        <_>
          6 6 6 8 2.</_></rects>
      <tilted>0</tilted></_>
    <_>
      <rects>
        <_>
          0 15 30 5 -1.</_>
        <_>
          10 15 10 5 3.</_></rects>
      <tilted>0</tilted></_>
    <_>
      <rects>
        <_>
          2 2 27 2 -1.</_>
        <_>
          11 2 9 2 3.</_></rects>
      <tilted>0</tilted></_>
    <_>
      <rects>
        <_>
          3 5 5 9 -1.</_>
        <_>
          3 8 5 3 3.</_></rects>
      <tilted>0</tilted></_>
    <_>
      <rects>
        <_>
          5 1 27 19 -1.</_>
        <_>
          14 1 9 19 3.</_></rects>
      <tilted>0</tilted></_>
    <_>
      <rects>
        <_>
          6 1 23 6 -1.</_>
        <_>
          6 4 23 3 2.</_></rects>
      <tilted>0</tilted></_>
    <_>
      <rects>
        <_>
          9 22 13 2 -1.</_>
        <_>
          9 23 13 1 2.</_></rects>
      <tilted>0</tilted></_>
    <_>
      <rects>
        <_>
          20 5 12 6 -1.</_>
        <_>
          26 5 6 6 2.</_></rects>
      <tilted>0</tilted></_>
    <_>
      <rects>
        <_>
          22 4 4 6 -1.</_>
        <_>
          22 7 4 3 2.</_></rects>
      <tilted>0</tilted></_>
    <_>
      <rects>
        <_>
          24 4 2 9 -1.</_>
        <_>
          24 7 2 3 3.</_></rects>
      <tilted>0</tilted></_></features></cascade>
</opencv_storage>
